<?xml version="1.0"?>
<opencv_storage>
<stage6>
  <maxWeakCount>5</maxWeakCount>
  <stageThreshold>-3.3094365149736404e-02</stageThreshold>
  <weakClassifiers>
    <_>
      <internalNodes>
        0 -1 8867 1.0637653991580009e-02</internalNodes>
      <leafValues>
        -3.0666667222976685e-01 9.2000001668930054e-01</leafValues></_>
    <_>
      <internalNodes>
        0 -1 36678 3.7705985596403480e-04</internalNodes>
      <leafValues>
        6.6161298751831055e-01 -4.4160503149032593e-01</leafValues></_>
    <_>
      <internalNodes>
        0 -1 97362 -3.4105468075722456e-03</internalNodes>
      <leafValues>
        6.3994324207305908e-01 -4.6808129549026489e-01</leafValues></_>
    <_>
      <internalNodes>
        0 -1 167006 7.0505782787222415e-05</internalNodes>
      <leafValues>
        5.9208101034164429e-01 -6.1684995889663696e-01</leafValues></_>
    <_>
      <internalNodes>
        0 -1 145057 -1.8448182381689548e-03</internalNodes>
      <leafValues>
        7.0521891117095947e-01 -4.1113397479057312e-01</leafValues></_></weakClassifiers></stage6>
</opencv_storage>
