<?xml version="1.0"?>
<opencv_storage>
<stage0>
  <maxWeakCount>5</maxWeakCount>
  <stageThreshold>-7.6929259300231934e-01</stageThreshold>
  <weakClassifiers>
    <_>
      <internalNodes>
        0 -1 3278818 -1.1146168410778046e-01</internalNodes>
      <leafValues>
        -5.6979405879974365e-01 7.7049177885055542e-01</leafValues></_>
    <_>
      <internalNodes>
        0 -1 3333 -8.5072949528694153e-02</internalNodes>
      <leafValues>
        5.9105759859085083e-01 -3.4124702215194702e-01</leafValues></_>
    <_>
      <internalNodes>
        0 -1 466567 -5.7252662372775376e-05</internalNodes>
      <leafValues>
        -6.3878995180130005e-01 3.2733985781669617e-01</leafValues></_>
    <_>
      <internalNodes>
        0 -1 3988365 -1.2542206095531583e-03</internalNodes>
      <leafValues>
        -3.9957985281944275e-01 4.1784396767616272e-01</leafValues></_>
    <_>
      <internalNodes>
        0 -1 96285 1.4626774645876139e-04</internalNodes>
      <leafValues>
        2.4781367182731628e-01 -7.4689108133316040e-01</leafValues></_></weakClassifiers></stage0>
</opencv_storage>
