<?xml version="1.0"?>
<opencv_storage>
<stage1>
  <maxWeakCount>5</maxWeakCount>
  <stageThreshold>-6.9875097274780273e-01</stageThreshold>
  <weakClassifiers>
    <_>
      <internalNodes>
        0 -1 2630873 -2.1740298718214035e-02</internalNodes>
      <leafValues>
        6.4102566242218018e-01 -6.0000002384185791e-01</leafValues></_>
    <_>
      <internalNodes>
        0 -1 2621087 -5.3995745256543159e-03</internalNodes>
      <leafValues>
        5.6989938020706177e-01 -3.8088423013687134e-01</leafValues></_>
    <_>
      <internalNodes>
        0 -1 3691393 3.3929443452507257e-04</internalNodes>
      <leafValues>
        -3.1276696920394897e-01 5.4296308755874634e-01</leafValues></_>
    <_>
      <internalNodes>
        0 -1 3692842 -2.5190598535118625e-05</internalNodes>
      <leafValues>
        -5.3699833154678345e-01 3.2065328955650330e-01</leafValues></_>
    <_>
      <internalNodes>
        0 -1 5004587 3.0345510458573699e-04</internalNodes>
      <leafValues>
        2.7616849541664124e-01 -5.4711562395095825e-01</leafValues></_></weakClassifiers></stage1>
</opencv_storage>
