<?xml version="1.0"?>
<opencv_storage>
<stage5>
  <maxWeakCount>6</maxWeakCount>
  <stageThreshold>-7.1572107076644897e-01</stageThreshold>
  <weakClassifiers>
    <_>
      <internalNodes>
        0 -1 4836771 2.6040893048048019e-02</internalNodes>
      <leafValues>
        -5.4734408855438232e-01 5.3846156597137451e-01</leafValues></_>
    <_>
      <internalNodes>
        0 -1 7340 3.0491873621940613e-02</internalNodes>
      <leafValues>
        -2.4595150351524353e-01 7.4790060520172119e-01</leafValues></_>
    <_>
      <internalNodes>
        0 -1 4960391 -5.6245684623718262e-02</internalNodes>
      <leafValues>
        4.1696897149085999e-01 -4.6136122941970825e-01</leafValues></_>
    <_>
      <internalNodes>
        0 -1 4227700 -3.0046101892367005e-04</internalNodes>
      <leafValues>
        -6.8040400743484497e-01 1.8557485938072205e-01</leafValues></_>
    <_>
      <internalNodes>
        0 -1 3948167 -4.7858497127890587e-03</internalNodes>
      <leafValues>
        -8.4662806987762451e-01 1.5383151173591614e-01</leafValues></_>
    <_>
      <internalNodes>
        0 -1 4996383 1.1202968380530365e-05</internalNodes>
      <leafValues>
        1.9952940940856934e-01 -5.7435661554336548e-01</leafValues></_></weakClassifiers></stage5>
</opencv_storage>
